digraph Tree {
node [shape=box] ;
0 [label="word_eius <= 0.001\ngini = 0.5\nsamples = 440\nvalue = [220, 220]"] ;
1 [label="word_eorum <= 0.0\ngini = 0.037\nsamples = 212\nvalue = [208, 4]"] ;
0 -> 1 [labeldistance=2.5, labelangle=45, headlabel="True"] ;
2 [label="gini = 0.0\nsamples = 208\nvalue = [208, 0]"] ;
1 -> 2 ;
3 [label="gini = 0.0\nsamples = 4\nvalue = [0, 4]"] ;
1 -> 3 ;
4 [label="word_in <= 0.008\ngini = 0.1\nsamples = 228\nvalue = [12, 216]"] ;
0 -> 4 [labeldistance=2.5, labelangle=-45, headlabel="False"] ;
5 [label="word_eius <= 0.003\ngini = 0.165\nsamples = 11\nvalue = [10, 1]"] ;
4 -> 5 ;
6 [label="gini = 0.0\nsamples = 10\nvalue = [10, 0]"] ;
5 -> 6 ;
7 [label="gini = 0.0\nsamples = 1\nvalue = [0, 1]"] ;
5 -> 7 ;
8 [label="word_in <= 0.011\ngini = 0.018\nsamples = 217\nvalue = [2, 215]"] ;
4 -> 8 ;
9 [label="word_in <= 0.011\ngini = 0.346\nsamples = 9\nvalue = [2, 7]"] ;
8 -> 9 ;
10 [label="gini = 0.0\nsamples = 7\nvalue = [0, 7]"] ;
9 -> 10 ;
11 [label="gini = 0.0\nsamples = 2\nvalue = [2, 0]"] ;
9 -> 11 ;
12 [label="gini = 0.0\nsamples = 208\nvalue = [0, 208]"] ;
8 -> 12 ;
}